<?xml version="1.0"?>
<opencv_storage>
<cascade>
  <stageType>BOOST</stageType>
  <featureType>LBP</featureType>
  <height>40</height>
  <width>40</width>
  <stageParams>
    <boostType>GAB</boostType>
    <minHitRate>9.9900001287460327e-01</minHitRate>
    <maxFalseAlarm>2.0000000298023224e-01</maxFalseAlarm>
    <weightTrimRate>9.4999998807907104e-01</weightTrimRate>
    <maxDepth>1</maxDepth>
    <maxWeakCount>100</maxWeakCount></stageParams>
  <featureParams>
    <maxCatCount>256</maxCatCount>
    <featSize>1</featSize></featureParams>
  <stageNum>8</stageNum>
  <stages>
    <!-- stage 0 -->
    <_>
      <maxWeakCount>1</maxWeakCount>
      <stageThreshold>1.</stageThreshold>
      <weakClassifiers>
        <_>
          <internalNodes>
            0 -1 4 268439771 1360007185 16797717 -250544111 32937
            -1878523904 -2139053877 -73825782</internalNodes>
          <leafValues>
            -1. 1.</leafValues></_></weakClassifiers></_>
    <!-- stage 1 -->
    <_>
      <maxWeakCount>1</maxWeakCount>
      <stageThreshold>8.6206895112991333e-01</stageThreshold>
      <weakClassifiers>
        <_>
          <internalNodes>
            0 -1 5 -666504705 -754777195 81935 1078034651 -1862151959
            277532810 -1685987158 -209463094</internalNodes>
          <leafValues>
            -1. 8.6206895112991333e-01</leafValues></_></weakClassifiers></_>
    <!-- stage 2 -->
    <_>
      <maxWeakCount>1</maxWeakCount>
      <stageThreshold>8.6206895112991333e-01</stageThreshold>
      <weakClassifiers>
        <_>
          <internalNodes>
            0 -1 1 -1861090817 -753860560 -2146434723 -1088880623
            -1341644549 -662699830 -1971289909 -1147977062</internalNodes>
          <leafValues>
            -1. 8.6206895112991333e-01</leafValues></_></weakClassifiers></_>
    <!-- stage 3 -->
    <_>
      <maxWeakCount>1</maxWeakCount>
      <stageThreshold>8.0000001192092896e-01</stageThreshold>
      <weakClassifiers>
        <_>
          <internalNodes>
            0 -1 6 1694750741 2047554071 -653062057 -6467053 -526778233
            -1643616255 -394024519 -40122165</internalNodes>
          <leafValues>
            -1. 8.0000001192092896e-01</leafValues></_></weakClassifiers></_>
    <!-- stage 4 -->
    <_>
      <maxWeakCount>1</maxWeakCount>
      <stageThreshold>8.0000001192092896e-01</stageThreshold>
      <weakClassifiers>
        <_>
          <internalNodes>
            0 -1 3 2077750263 -1759936455 25231623 -1744109557
            -1954503949 -2021064499 -1902925693 -270014229</internalNodes>
          <leafValues>
            -1. 8.0000001192092896e-01</leafValues></_></weakClassifiers></_>
    <!-- stage 5 -->
    <_>
      <maxWeakCount>1</maxWeakCount>
      <stageThreshold>7.4193549156188965e-01</stageThreshold>
      <weakClassifiers>
        <_>
          <internalNodes>
            0 -1 7 -661656611 -534577149 81991 -939302895 -1072971127
            -805123966 1095084107 -136328753</internalNodes>
          <leafValues>
            -1. 7.4193549156188965e-01</leafValues></_></weakClassifiers></_>
    <!-- stage 6 -->
    <_>
      <maxWeakCount>1</maxWeakCount>
      <stageThreshold>6.8750000000000000e-01</stageThreshold>
      <weakClassifiers>
        <_>
          <internalNodes>
            0 -1 0 -577650721 -183431145 49283 -654278645 -1736339251
            -2145595375 -1870428021 -541334626</internalNodes>
          <leafValues>
            -1. 6.8750000000000000e-01</leafValues></_></weakClassifiers></_>
    <!-- stage 7 -->
    <_>
      <maxWeakCount>1</maxWeakCount>
      <stageThreshold>8.6206895112991333e-01</stageThreshold>
      <weakClassifiers>
        <_>
          <internalNodes>
            0 -1 2 1610117295 -586135503 -318734139 -41417719 589891
            -1727856496 -1985441591 -125056535</internalNodes>
          <leafValues>
            -1. 8.6206895112991333e-01</leafValues></_></weakClassifiers></_></stages>
  <features>
    <_>
      <rect>
        3 13 10 9</rect></_>
    <_>
      <rect>
        5 19 6 2</rect></_>
    <_>
      <rect>
        11 7 8 3</rect></_>
    <_>
      <rect>
        12 5 8 3</rect></_>
    <_>
      <rect>
        16 7 6 1</rect></_>
    <_>
      <rect>
        18 12 5 5</rect></_>
    <_>
      <rect>
        21 14 4 3</rect></_>
    <_>
      <rect>
        31 3 3 9</rect></_></features></cascade>
</opencv_storage>
