<?xml version="1.0"?>
<opencv_storage>
<cascade>
  <stageType>BOOST</stageType>
  <featureType>LBP</featureType>
  <height>40</height>
  <width>40</width>
  <stageParams>
    <boostType>GAB</boostType>
    <minHitRate>9.9900001287460327e-01</minHitRate>
    <maxFalseAlarm>2.0000000298023224e-01</maxFalseAlarm>
    <weightTrimRate>9.4999998807907104e-01</weightTrimRate>
    <maxDepth>1</maxDepth>
    <maxWeakCount>100</maxWeakCount></stageParams>
  <featureParams>
    <maxCatCount>256</maxCatCount>
    <featSize>1</featSize></featureParams>
  <stageNum>10</stageNum>
  <stages>
    <!-- stage 0 -->
    <_>
      <maxWeakCount>2</maxWeakCount>
      <stageThreshold>-1.4527574181556702e-01</stageThreshold>
      <weakClassifiers>
        <_>
          <internalNodes>
            0 -1 16 -750563157 1366376514 -1073741824 -242478973
            -1879047551 33685536 41483 -1441861493</internalNodes>
          <leafValues>
            -9.7905761003494263e-01 7.9816514253616333e-01</leafValues></_>
        <_>
          <internalNodes>
            0 -1 14 -750694005 1392525314 -805306356 -1333460863
            -2147384704 -2147352574 -2126511478 -108354933</internalNodes>
          <leafValues>
            -9.4344085454940796e-01 8.9346665143966675e-01</leafValues></_></weakClassifiers></_>
    <!-- stage 1 -->
    <_>
      <maxWeakCount>2</maxWeakCount>
      <stageThreshold>-1.3846668601036072e-01</stageThreshold>
      <weakClassifiers>
        <_>
          <internalNodes>
            0 -1 12 268439765 26214400 268435633 -721354495 -2147483510
            134217728 -2147450678 -1711243261</internalNodes>
          <leafValues>
            -9.2000001668930054e-01 8.3999997377395630e-01</leafValues></_>
        <_>
          <internalNodes>
            0 -1 2 -725093949 1094025280 142737668 -996212606 805376192
            -2139078656 -2109636606 -477441911</internalNodes>
          <leafValues>
            -9.7095090150833130e-01 7.8153330087661743e-01</leafValues></_></weakClassifiers></_>
    <!-- stage 2 -->
    <_>
      <maxWeakCount>2</maxWeakCount>
      <stageThreshold>-8.6022689938545227e-02</stageThreshold>
      <weakClassifiers>
        <_>
          <internalNodes>
            0 -1 10 -788217767 -720240624 402786325 -653164410
            -2145247041 -1157496824 25200878 -1190559605</internalNodes>
          <leafValues>
            -8.9999997615814209e-01 8.0000001192092896e-01</leafValues></_>
        <_>
          <internalNodes>
            0 -1 4 -750264161 -1874853760 17 -1866448768 -1073414140
            -805289984 -2147426302 -498111985</internalNodes>
          <leafValues>
            -8.8602268695831299e-01 9.0825366973876953e-01</leafValues></_></weakClassifiers></_>
    <!-- stage 3 -->
    <_>
      <maxWeakCount>2</maxWeakCount>
      <stageThreshold>-1.4563886821269989e-01</stageThreshold>
      <weakClassifiers>
        <_>
          <internalNodes>
            0 -1 9 -2134900601 -2143223808 1073774608 -788332543
            -2143272959 -2147483648 128 -536805376</internalNodes>
          <leafValues>
            -9.3908631801605225e-01 8.2524269819259644e-01</leafValues></_>
        <_>
          <internalNodes>
            0 -1 8 -785915446 -784244718 16842754 -985165246 -1333567349
            -2138930944 542214697 -641474453</internalNodes>
          <leafValues>
            -9.7088158130645752e-01 7.9646581411361694e-01</leafValues></_></weakClassifiers></_>
    <!-- stage 4 -->
    <_>
      <maxWeakCount>2</maxWeakCount>
      <stageThreshold>-3.7027254700660706e-02</stageThreshold>
      <weakClassifiers>
        <_>
          <internalNodes>
            0 -1 1 -188234829 1091063938 19 -2076065663 -1878843390
            16400 1351319554 -208973685</internalNodes>
          <leafValues>
            -8.9268290996551514e-01 8.7368422746658325e-01</leafValues></_>
        <_>
          <internalNodes>
            0 -1 13 -788430569 1360068612 -2130705995 -1806630895
            -2130706280 -2130706304 -2147442502 -1333133311</internalNodes>
          <leafValues>
            -9.1071146726608276e-01 8.5995697975158691e-01</leafValues></_></weakClassifiers></_>
    <!-- stage 5 -->
    <_>
      <maxWeakCount>2</maxWeakCount>
      <stageThreshold>-2.6744481921195984e-01</stageThreshold>
      <weakClassifiers>
        <_>
          <internalNodes>
            0 -1 6 18006260 -788193279 -1056964215 1359024409 17346747
            -2130706295 1342218910 -1144552789</internalNodes>
          <leafValues>
            -9.6739131212234497e-01 6.7241376638412476e-01</leafValues></_>
        <_>
          <internalNodes>
            0 -1 11 69777 -1064173568 16781727 1434517505 16777384
            402653312 -2139094867 -1702363005</internalNodes>
          <leafValues>
            -9.3985861539840698e-01 7.6541668176651001e-01</leafValues></_></weakClassifiers></_>
    <!-- stage 6 -->
    <_>
      <maxWeakCount>2</maxWeakCount>
      <stageThreshold>-2.2263315320014954e-01</stageThreshold>
      <weakClassifiers>
        <_>
          <internalNodes>
            0 -1 17 289657343 -532606976 805311562 -1806663655 22642842
            167805056 -1574704184 -72621677</internalNodes>
          <leafValues>
            -9.4652408361434937e-01 6.8141591548919678e-01</leafValues></_>
        <_>
          <internalNodes>
            0 -1 20 -733491849 -719224831 1346388081 1912897538 42566253
            1082130436 -2127977846 -70586181</internalNodes>
          <leafValues>
            -9.0404909849166870e-01 8.1132251024246216e-01</leafValues></_></weakClassifiers></_>
    <!-- stage 7 -->
    <_>
      <maxWeakCount>2</maxWeakCount>
      <stageThreshold>-1.3782963156700134e-01</stageThreshold>
      <weakClassifiers>
        <_>
          <internalNodes>
            0 -1 18 -733613097 -729710591 50364433 -251592439 122889
            -1409253358 -1073379326 -108937169</internalNodes>
          <leafValues>
            -8.8118809461593628e-01 7.9591834545135498e-01</leafValues></_>
        <_>
          <internalNodes>
            0 -1 0 -1869117457 1908506883 -2147418107 822280195
            -2143190898 65570 -2117695350 -220110623</internalNodes>
          <leafValues>
            -9.3374800682067871e-01 7.6552695035934448e-01</leafValues></_></weakClassifiers></_>
    <!-- stage 8 -->
    <_>
      <maxWeakCount>3</maxWeakCount>
      <stageThreshold>4.7362291812896729e-01</stageThreshold>
      <weakClassifiers>
        <_>
          <internalNodes>
            0 -1 15 -1340357937 -1869377334 -1073276492 -980729050
            1220731275 1091092610 -2009601918 -498416117</internalNodes>
          <leafValues>
            -9.6685081720352173e-01 6.3025212287902832e-01</leafValues></_>
        <_>
          <internalNodes>
            0 -1 3 319870171 -250413055 -1879048012 1493172228
            -1610448696 1485308545 8439946 -99514232</internalNodes>
          <leafValues>
            -9.0942353010177612e-01 7.4539399147033691e-01</leafValues></_>
        <_>
          <internalNodes>
            0 -1 5 -804011031 -241991653 -1861122792 51488777 1217446350
            -1274757119 -2013242929 -1995865333</internalNodes>
          <leafValues>
            -9.0202319622039795e-01 8.1590449810028076e-01</leafValues></_></weakClassifiers></_>
    <!-- stage 9 -->
    <_>
      <maxWeakCount>2</maxWeakCount>
      <stageThreshold>-2.3607160151004791e-01</stageThreshold>
      <weakClassifiers>
        <_>
          <internalNodes>
            0 -1 7 -247117457 1376781059 -1879029757 -654303232
            -1874624503 -2111766263 -2002679637 -324288214</internalNodes>
          <leafValues>
            -9.0625000000000000e-01 6.8518519401550293e-01</leafValues></_>
        <_>
          <internalNodes>
            0 -1 19 -648571561 -728711165 -2012938219 195827777
            1090637832 -2130640764 -1476247542 1535871659</internalNodes>
          <leafValues>
            -9.2125678062438965e-01 7.4678838253021240e-01</leafValues></_></weakClassifiers></_></stages>
  <features>
    <_>
      <rect>
        0 2 2 10</rect></_>
    <_>
      <rect>
        0 3 2 12</rect></_>
    <_>
      <rect>
        0 9 7 7</rect></_>
    <_>
      <rect>
        0 33 13 2</rect></_>
    <_>
      <rect>
        1 5 2 11</rect></_>
    <_>
      <rect>
        2 9 7 7</rect></_>
    <_>
      <rect>
        2 19 12 6</rect></_>
    <_>
      <rect>
        2 26 4 4</rect></_>
    <_>
      <rect>
        4 6 6 10</rect></_>
    <_>
      <rect>
        6 6 1 1</rect></_>
    <_>
      <rect>
        7 19 10 6</rect></_>
    <_>
      <rect>
        7 37 11 1</rect></_>
    <_>
      <rect>
        8 35 9 1</rect></_>
    <_>
      <rect>
        13 0 7 2</rect></_>
    <_>
      <rect>
        18 7 7 8</rect></_>
    <_>
      <rect>
        18 9 7 8</rect></_>
    <_>
      <rect>
        18 10 7 7</rect></_>
    <_>
      <rect>
        22 25 6 5</rect></_>
    <_>
      <rect>
        23 13 5 5</rect></_>
    <_>
      <rect>
        24 6 5 9</rect></_>
    <_>
      <rect>
        27 2 4 4</rect></_></features></cascade>
</opencv_storage>
